-2.99947 -0.0311589 0.0223764 -0.161205 -0.0308422 1.42875 0.00186899 
0 0 0 0 0 0 0 0 0 0 0 0 0 0 0 0 0 0 0 0 0 0 0 0 0 0 0 0 0 0 0 0 0 0 0 0 0 0 0 0 0 0 0 0 0 0 0 0 0 0 0 0 0 0 0 0 0 0 0 0 0 0 0 0 0 0 0 0 0 0 0 0 0 0 0 0 0 0 0 0 0 0 0 0 0 0 0 0 0 0 0 0 0 0 0 0 0 0 0 0 0 0 0 0 0 0 0 0 0 0 0 0 0 0 0 0 0 0 0 0 0 0 0 0 0 0 0 0 0 0 0 0 0 0 0 0 0 0 0 0 0 0 0 0 0 0 0 0 0 0 0 0 0 0 0 0 0 0 0 0 0 0 0 0 0 0 0 0 0 0 0 0 0 0 0 0 0 0 0 0 0 0 0 0 0 0 0 0 0 0 0 0 0 0 0 0 0 0 0 
0.000558461 -0.00279876 -0.000412824 0.000363981 -0.000272928 -0.000404776 0.000110437 0.00105498 3.32273e-05 -5.48076e-05 -0.000159889 0.000579108 3.97752e-07 0.000542999 -5.37751e-05 -0.000138359 -1.62097e-05 1.0857e-05 7.49165e-05 -8.59492e-06 -1.54612e-05 1.08241e-05 2.06808e-05 2.63371e-05 0.000213099 8.35611e-05 0.00010961 6.00287e-05 5.40259e-05 -3.95636e-05 3.93428e-06 -0.000115518 1.67376e-05 -6.38753e-06 7.88244e-05 7.45767e-05 -5.80527e-05 5.76647e-05 -4.15462e-05 6.82819e-05 -6.0864e-06 3.43837e-05 -1.88196e-05 -4.83984e-05 -2.62967e-06 4.82424e-05 4.13112e-05 -1.54777e-05 1.75644e-05 3.43523e-06 -5.16046e-06 -4.79214e-06 4.26979e-06 -1.56987e-05 2.4203e-05 8.29143e-06 -1.91756e-05 7.47615e-06 -6.47752e-06 -6.0412e-06 1.50089e-05 -1.25838e-05 -3.35134e-06 -1.79836e-06 -4.61254e-06 -1.80136e-05 -5.40127e-06 2.19841e-05 -3.68734e-06 -1.23051e-05 -2.7834e-06 -7.15524e-06 -3.88386e-06 -8.59269e-06 1.44304e-05 8.61458e-06 -4.43741e-06 9.91941e-06 -7.09313e-06 8.13668e-06 1.925e-06 8.21045e-07 6.45216e-06 9.70375e-06 1.07936e-06 -2.16543e-06 -2.83427e-06 4.25302e-06 -3.41582e-06 -6.59703e-06 3.202e-07 -5.63612e-06 -5.32965e-06 1.49295e-06 -1.80639e-06 -1.75609e-06 7.32694e-06 -2.55015e-06 4.59883e-06 1.10236e-06 1.1668e-06 1.43305e-06 -1.70955e-06 -2.63945e-06 1.38669e-06 6.48843e-07 5.25252e-07 -2.62131e-06 1.55623e-06 -2.28206e-06 -6.01727e-07 2.54948e-06 -1.65632e-06 2.32444e-06 4.68684e-07 -9.75603e-07 -7.79104e-08 9.50343e-07 -4.7271e-07 -9.75713e-08 -2.03153e-07 1.16104e-07 -1.09716e-06 9.89233e-07 -2.0519e-06 -2.6664e-06 1.95351e-06 1.11232e-06 -4.09915e-07 -5.14698e-07 1.468e-06 2.1007e-06 2.11466e-06 4.34985e-07 1.76016e-07 6.35773e-07 -1.32429e-06 3.24393e-07 4.79899e-08 1.01736e-06 1.76195e-07 7.12237e-08 4.71583e-07 4.82914e-07 7.92608e-07 -2.70661e-07 5.97807e-07 -2.07999e-07 6.9323e-07 4.59865e-07 -1.17681e-06 -5.67641e-08 -6.09877e-07 5.09931e-07 4.25635e-07 4.70646e-07 3.32252e-07 -6.10757e-07 1.52202e-08 -5.52031e-08 7.10023e-08 -3.63207e-07 -3.31013e-07 1.78021e-07 -6.10239e-07 -4.34809e-07 -3.25315e-08 -5.08613e-07 1.5766e-07 -9.96342e-08 1.45785e-08 -4.06132e-08 -1.07885e-07 2.78592e-07 9.09175e-08 9.72551e-08 8.29343e-08 -8.58183e-08 -3.2994e-07 2.74567e-08 -1.05534e-07 -9.84282e-08 1.48493e-07 -1.09655e-07 -5.52149e-08 -1.76353e-07 -3.82016e-07 3.02424e-07 2.56349e-07 -2.96328e-08 -2.04824e-07 1.84093e-08 4.14469e-08 -2.1896e-08 -6.37475e-08 2.2444e-08 8.90525e-08 -1.00306e-07 8.01037e-08 
-2.15689e-05 -4.75402e-05 -1.88737e-06 1.05802e-05 2.16345e-05 -2.00064e-05 -1.69984e-06 3.34187e-05 2.31066e-06 3.79247e-05 2.56033e-05 5.53158e-05 -2.26619e-05 -6.76869e-06 2.31134e-05 3.2136e-05 -2.70198e-05 1.53936e-05 -1.02292e-05 -2.74148e-05 -4.60617e-05 -7.65651e-07 -3.88518e-06 5.01824e-06 4.00553e-05 1.7707e-05 -5.30003e-06 1.25913e-05 -3.39284e-06 2.37644e-05 8.01266e-06 3.72371e-05 -1.20422e-05 -6.47931e-06 6.10878e-06 2.15819e-05 -3.0523e-06 2.62484e-06 -1.24294e-05 -3.40268e-05 4.89e-05 7.58438e-07 6.93853e-06 2.6935e-06 -1.22406e-05 9.68835e-06 7.32015e-06 -1.5571e-05 -2.22704e-05 4.48965e-06 3.51155e-05 -1.29324e-05 2.31136e-05 2.41017e-05 1.71742e-05 7.68209e-06 2.90178e-05 1.24914e-05 -2.69008e-05 1.10381e-05 5.95943e-06 2.345e-05 3.13589e-05 2.56418e-05 1.25875e-05 3.2314e-06 -1.34353e-05 -1.17022e-05 -2.16183e-05 4.14141e-05 5.36245e-06 1.22592e-05 2.05036e-05 -1.32664e-05 -2.64417e-05 5.98527e-06 2.11616e-05 2.39153e-05 -2.29429e-05 -1.56848e-05 -8.71046e-06 -4.36892e-05 6.64589e-06 1.02869e-06 2.37007e-05 -4.61264e-06 -6.92591e-06 -4.54977e-06 -7.7772e-06 5.64244e-05 1.43722e-05 -5.04631e-05 3.38349e-05 4.01456e-06 1.13701e-05 -2.95765e-06 -3.83685e-05 3.59553e-05 -4.71074e-06 5.15688e-06 
