-3.01448 0.0442874 -0.132405 -0.130212 -0.0231363 0.823899 -6.81923 
0 0 0 0 0 0 0 0 0 0 0 0 0 0 0 0 0 0 0 0 0 0 0 0 0 0 0 0 0 0 0 0 0 0 0 0 0 0 0 0 0 0 0 0 0 0 0 0 0 0 0 0 0 0 0 0 0 0 0 0 0 0 0 0 0 0 0 0 0 0 0 0 0 0 0 0 0 0 0 0 0 0 0 0 0 0 0 0 0 0 0 0 0 0 0 0 0 0 0 0 0 0 0 0 0 0 0 0 0 0 0 0 0 0 0 0 0 0 0 0 0 0 0 0 0 0 0 0 0 0 0 0 0 0 0 0 0 0 0 0 0 0 0 0 0 0 0 0 0 0 0 0 0 0 0 0 0 0 0 0 0 0 0 0 0 0 0 0 0 0 0 0 0 0 0 0 0 0 0 0 0 0 0 0 0 0 0 0 0 0 0 0 0 0 0 0 0 0 0 
-0.000208291 0.0028794 -0.00258092 -0.0011199 -0.00140092 0.00195339 -0.00159109 0.000178527 2.10416e-06 -8.32675e-05 -6.45769e-05 0.000349004 -0.000754086 0.000266829 -0.000423104 -7.91104e-05 -1.23114e-06 0.00014576 -4.46193e-05 -0.000215166 1.45442e-05 0.000229125 6.71806e-05 0.000152331 0.000209758 -1.79561e-08 1.40221e-05 -6.67551e-05 0.00010814 8.43195e-06 -3.42694e-05 -1.83274e-05 -4.64029e-05 -5.90376e-05 6.42592e-05 6.61184e-05 -6.95083e-05 -9.38109e-07 -7.92855e-06 2.56364e-05 3.09001e-05 -1.56137e-05 2.50504e-05 -3.9776e-05 1.98996e-05 2.69197e-05 4.65253e-06 -2.52517e-05 7.70196e-06 4.79379e-06 6.67711e-06 5.09609e-06 1.57495e-05 6.77944e-06 9.78218e-06 5.92738e-06 -1.69845e-06 -9.96023e-06 9.48465e-06 -7.30733e-06 1.26039e-05 -2.83822e-06 -1.29777e-05 -3.77206e-06 4.50328e-06 4.27845e-07 6.25346e-06 4.07884e-06 9.13695e-06 5.7832e-06 2.80141e-06 -5.69824e-06 -6.83466e-06 -2.05511e-05 4.59724e-06 8.67217e-06 -3.29573e-06 5.69535e-06 2.40474e-06 1.96925e-06 -8.26992e-07 -4.6368e-07 3.1097e-06 4.45367e-06 2.31686e-06 -3.89838e-06 -6.755e-06 5.80404e-07 -3.75556e-06 2.5269e-06 -3.55587e-07 -3.69435e-06 -6.36336e-06 9.88389e-07 -1.05949e-05 6.28263e-07 -2.3376e-07 -3.04312e-07 3.93027e-06 -1.05393e-06 4.61644e-06 -1.31883e-06 -1.88599e-07 -3.91976e-06 7.84063e-07 1.77326e-07 -1.12601e-06 6.96333e-07 -2.20069e-06 -1.02249e-06 3.75336e-08 6.30356e-07 -1.37799e-06 -7.84047e-07 3.14038e-06 -1.36266e-07 -4.89793e-07 -5.275e-07 -2.84036e-06 -1.90214e-06 -2.33707e-06 -1.79283e-06 -2.96196e-08 1.58953e-08 -8.4429e-07 -5.30033e-07 5.32962e-07 2.36205e-07 -6.77038e-09 -3.90048e-07 -4.4266e-07 1.65756e-06 6.35017e-08 1.05942e-07 7.77409e-07 -9.81886e-07 -1.54389e-06 6.42888e-07 -1.35154e-07 1.47403e-07 -3.98378e-07 -7.21934e-08 4.68803e-07 -8.4635e-07 8.89619e-07 1.241e-07 7.4364e-07 -1.51766e-07 3.84172e-07 -2.53676e-07 -1.88638e-07 -1.44672e-07 1.06949e-07 8.94119e-08 3.6598e-08 -1.35665e-07 1.51686e-07 -2.08034e-07 -1.81788e-07 -2.58744e-07 -4.09028e-07 -7.41827e-07 -1.71728e-07 2.55518e-07 -5.38382e-07 2.41243e-10 -4.88451e-08 -2.27784e-07 -1.87634e-07 -3.98826e-08 1.26397e-07 -1.28401e-07 3.04772e-07 -3.51615e-08 7.2274e-08 7.85707e-08 -4.48592e-08 -1.63821e-07 -1.53551e-07 2.29224e-07 -1.8417e-07 3.51137e-08 -2.04746e-08 -2.53379e-07 1.96325e-07 1.04143e-07 -1.71542e-07 -8.13828e-08 6.25743e-08 -1.52044e-08 -1.51689e-07 5.48955e-08 2.50392e-07 -8.40219e-08 5.24332e-08 2.67994e-08 -3.67453e-08 -5.08523e-08 -4.17092e-08 
0.00367913 0.0012114 -0.000372992 -0.000689446 0.000337404 0.000237009 -0.000381467 0.00073979 0.000161988 0.000580911 0.00021923 0.000350384 6.15177e-05 -0.000239503 3.31065e-05 3.36002e-05 -0.000160758 7.61911e-05 1.73555e-05 -9.15775e-05 -0.000125769 -3.62781e-05 -3.54463e-05 -2.76144e-05 6.81524e-05 5.95246e-05 -6.1146e-05 -2.03614e-05 2.03328e-05 4.40302e-06 -6.56013e-05 5.47721e-05 -3.92342e-05 5.69177e-05 -1.1721e-05 2.08395e-05 -3.2974e-05 -7.48466e-06 7.98277e-07 -1.04125e-05 3.94478e-05 -1.43109e-05 -2.59267e-05 8.70916e-06 7.46508e-06 1.3874e-05 -7.40314e-06 6.77985e-06 -1.04338e-05 -3.24047e-06 5.86202e-06 5.98338e-06 1.4426e-06 4.34291e-07 4.13931e-06 -1.70362e-06 2.06133e-05 -8.41208e-06 2.31506e-06 7.01463e-06 1.20681e-05 -2.62612e-06 5.96385e-06 8.31744e-06 -3.93639e-06 -3.20937e-07 9.10962e-07 -6.50701e-06 -5.64275e-06 3.25754e-06 2.12732e-06 -8.04439e-06 3.53667e-06 -7.37659e-06 1.53825e-06 -7.46027e-07 8.31185e-06 1.81923e-06 -1.66336e-06 -4.04838e-07 -2.50203e-06 -5.79681e-06 4.05494e-06 -8.43394e-07 2.33953e-06 3.11063e-06 -2.25699e-06 7.04213e-07 -1.33934e-06 7.60379e-06 2.68213e-06 -2.79321e-06 6.19322e-07 1.82106e-06 -2.77729e-06 -1.67938e-06 -1.54594e-06 1.57676e-06 -1.39635e-06 4.87206e-08 
