-3.0691 -0.0246205 -0.0077734 -0.0965715 -0.0092829 0.830865 -6.84906 
0 0 0 0 0 0 0 0 0 0 0 0 0 0 0 0 0 0 0 0 0 0 0 0 0 0 0 0 0 0 0 0 0 0 0 0 0 0 0 0 0 0 0 0 0 0 0 0 0 0 0 0 0 0 0 0 0 0 0 0 0 0 0 0 0 0 0 0 0 0 0 0 0 0 0 0 0 0 0 0 0 0 0 0 0 0 0 0 0 0 0 0 0 0 0 0 0 0 0 0 0 0 0 0 0 0 0 0 0 0 0 0 0 0 0 0 0 0 0 0 0 0 0 0 0 0 0 0 0 0 0 0 0 0 0 0 0 0 0 0 0 0 0 0 0 0 0 0 0 0 0 0 0 0 0 0 0 0 0 0 0 0 0 0 0 0 0 0 0 0 0 0 0 0 0 0 0 0 0 0 0 0 0 0 0 0 0 0 0 0 0 0 0 0 0 0 0 0 0 
0.00170086 0.00887731 -0.00355286 -0.00199134 -0.00250872 0.00132193 -0.000152166 5.5585e-05 0.000149393 0.000315383 -0.000282829 0.000174751 9.85569e-05 5.9937e-05 0.000204213 -0.00020615 -0.000123445 7.1939e-05 -6.38622e-05 8.43232e-05 2.58546e-05 -9.37357e-05 -0.000127818 3.45415e-05 0.000118397 -3.80314e-06 3.81527e-05 2.45224e-05 -2.25775e-07 1.30605e-05 -2.79949e-05 -6.03426e-05 5.81769e-05 7.84416e-05 3.56799e-05 7.00028e-05 -6.09003e-05 2.77206e-05 -3.03217e-05 4.17364e-06 6.86901e-05 -1.66906e-05 -2.8817e-07 -5.42528e-05 1.18511e-05 1.97571e-05 -1.31538e-05 6.98463e-06 8.87102e-06 1.11875e-05 1.34129e-05 7.64359e-06 5.57009e-06 4.70491e-06 -1.03081e-05 1.34498e-05 -1.38489e-06 -9.4662e-06 -3.11916e-06 7.6158e-06 8.86549e-07 -5.24554e-06 -1.00926e-05 -5.15112e-06 -1.79732e-05 -4.9532e-06 8.70013e-06 7.61465e-06 6.91989e-06 -4.81982e-06 8.36657e-07 -6.15237e-07 -1.24608e-05 -7.00551e-06 7.0132e-07 6.19377e-06 -2.6887e-06 3.65594e-06 -7.02792e-06 4.17786e-06 7.00186e-06 2.2182e-06 1.78427e-06 -1.27087e-06 4.28612e-06 -1.4362e-06 1.28582e-06 3.26518e-06 -1.75749e-06 1.3536e-06 -5.69215e-08 -1.93889e-07 -1.62519e-06 -2.21491e-06 -4.83475e-06 2.75953e-06 -2.19087e-06 -6.73053e-06 4.4846e-06 -7.73244e-07 3.63033e-06 -4.26145e-06 5.34842e-07 -1.05219e-06 1.96321e-06 -3.8602e-06 3.2853e-07 -2.70929e-06 7.52807e-07 1.3844e-06 -8.95449e-08 2.1863e-06 -1.98622e-06 -2.79038e-07 1.32951e-06 8.40247e-07 -8.16349e-07 1.59609e-07 -1.35218e-06 -1.27642e-06 -4.47064e-07 6.53279e-07 9.45006e-07 8.82117e-07 5.33942e-07 -1.84351e-06 9.9033e-07 -1.33407e-06 5.50162e-07 9.87005e-07 1.09613e-06 3.34097e-08 4.31618e-07 4.90921e-07 -1.99065e-07 1.1716e-07 -5.55211e-07 -4.84594e-09 -4.71307e-07 -3.6723e-07 -1.27993e-08 6.00493e-07 8.76427e-09 -2.03763e-07 6.79422e-07 -8.80604e-07 4.46869e-07 2.35759e-07 6.24174e-07 -2.88808e-07 -3.81557e-07 -3.6459e-07 1.43971e-07 -1.00436e-07 7.5238e-08 7.86267e-07 3.08153e-07 -3.7831e-08 -3.56475e-07 -2.73952e-08 -3.79482e-07 -4.44495e-07 -2.48338e-07 3.9585e-07 -3.27503e-07 -8.19055e-08 8.70113e-08 -1.16835e-07 -2.29687e-07 -3.54407e-07 2.14501e-07 1.50511e-09 4.02261e-09 1.69957e-08 -4.32466e-08 1.78931e-07 3.11578e-07 -1.95126e-08 -6.72943e-08 1.76989e-07 -9.39906e-08 -1.26239e-09 5.96571e-08 -7.46582e-08 -2.03891e-08 -1.11843e-08 -2.45277e-07 -1.37377e-07 2.31568e-08 4.16547e-09 -9.73132e-08 1.18211e-07 5.13244e-08 4.43981e-08 6.29378e-08 6.83116e-08 -2.57856e-08 3.89466e-08 -4.20807e-09 
-0.0104411 0.000208759 -3.42475e-05 -0.000294599 0.000954817 -1.9371e-05 -0.000210985 8.3713e-05 0.000244445 0.00030616 0.000203865 -1.09836e-05 0.000124504 -9.52785e-05 -4.29453e-06 -1.13239e-05 -0.000107744 0.000165527 3.83271e-05 -3.61282e-05 5.12542e-05 2.56027e-05 -4.69622e-05 1.30775e-05 9.50984e-05 4.09446e-05 3.23208e-06 2.65125e-05 -4.06653e-06 5.5427e-05 1.84655e-05 7.07563e-06 1.76597e-05 -7.01997e-06 1.56077e-06 1.47886e-07 1.39778e-05 2.53023e-05 -9.72401e-06 -1.2597e-05 1.79509e-05 7.09628e-06 -6.9681e-06 6.76081e-06 1.02065e-05 1.67203e-06 -1.75881e-05 -2.77065e-06 -7.93481e-06 1.05074e-05 -1.12587e-05 -7.77007e-06 7.52863e-06 9.65985e-07 5.81277e-06 -7.89303e-06 1.11285e-05 -9.28965e-06 -1.30352e-07 2.42204e-06 8.98386e-06 -9.49557e-07 -1.36972e-06 3.61291e-06 7.3e-07 -7.8098e-07 -2.36271e-06 -4.03487e-06 -4.55541e-06 -2.51257e-07 2.83273e-06 4.96691e-06 5.15911e-06 -5.67813e-07 3.56196e-06 -4.03826e-06 2.19347e-06 4.67367e-06 -8.68929e-07 2.56646e-07 -2.36475e-06 -4.50226e-06 2.63909e-07 -3.11796e-06 -2.08182e-06 5.95642e-07 2.21883e-06 1.15882e-06 -7.00269e-07 3.06043e-06 -2.45044e-07 -2.55084e-06 2.57481e-06 2.16291e-06 -3.37968e-06 -1.8931e-06 7.3486e-08 9.41494e-07 -1.43897e-06 1.45844e-06 
